<?xml version="1.0"?>
<opencv_storage>
<turnRight_ahead>
  <stageType>BOOST</stageType>
  <featureType>HAAR</featureType>
  <height>24</height>
  <width>32</width>
  <stageParams>
    <boostType>GAB</boostType>
    <minHitRate>9.9500000476837158e-01</minHitRate>
    <maxFalseAlarm>5.0000000000000000e-01</maxFalseAlarm>
    <weightTrimRate>9.4999998807907104e-01</weightTrimRate>
    <maxDepth>1</maxDepth>
    <maxWeakCount>100</maxWeakCount></stageParams>
  <featureParams>
    <maxCatCount>0</maxCatCount>
    <featSize>1</featSize>
    <mode>BASIC</mode></featureParams>
  <stageNum>15</stageNum>
  <stages>
    <!-- stage 0 -->
    <_>
      <maxWeakCount>2</maxWeakCount>
      <stageThreshold>-4.3115404248237610e-01</stageThreshold>
      <weakClassifiers>
        <_>
          <internalNodes>
            0 -1 8 2.4107277393341064e-02</internalNodes>
          <leafValues>
            -9.7802197933197021e-01 7.9797977209091187e-01</leafValues></_>
        <_>
          <internalNodes>
            0 -1 53 -6.4645814709365368e-03</internalNodes>
          <leafValues>
            5.4686790704727173e-01 -1.</leafValues></_></weakClassifiers></_>
    <!-- stage 1 -->
    <_>
      <maxWeakCount>3</maxWeakCount>
      <stageThreshold>-1.4225702285766602e+00</stageThreshold>
      <weakClassifiers>
        <_>
          <internalNodes>
            0 -1 32 -4.5561537146568298e-02</internalNodes>
          <leafValues>
            2.1600000560283661e-01 -9.5076924562454224e-01</leafValues></_>
        <_>
          <internalNodes>
            0 -1 51 2.9887696728110313e-02</internalNodes>
          <leafValues>
            -9.3991291522979736e-01 3.5542201995849609e-01</leafValues></_>
        <_>
          <internalNodes>
            0 -1 17 7.2801522910594940e-03</internalNodes>
          <leafValues>
            -9.7575110197067261e-01 4.6811184287071228e-01</leafValues></_></weakClassifiers></_>
    <!-- stage 2 -->
    <_>
      <maxWeakCount>3</maxWeakCount>
      <stageThreshold>-1.3656659126281738e+00</stageThreshold>
      <weakClassifiers>
        <_>
          <internalNodes>
            0 -1 26 -1.7538255080580711e-02</internalNodes>
          <leafValues>
            3.1506848335266113e-01 -8.9873415231704712e-01</leafValues></_>
        <_>
          <internalNodes>
            0 -1 41 5.4656676948070526e-03</internalNodes>
          <leafValues>
            -9.1719883680343628e-01 2.4431864917278290e-01</leafValues></_>
        <_>
          <internalNodes>
            0 -1 1 -1.2896642088890076e-01</internalNodes>
          <leafValues>
            5.6918764114379883e-01 -7.1125036478042603e-01</leafValues></_></weakClassifiers></_>
    <!-- stage 3 -->
    <_>
      <maxWeakCount>3</maxWeakCount>
      <stageThreshold>-1.6789418458938599e+00</stageThreshold>
      <weakClassifiers>
        <_>
          <internalNodes>
            0 -1 3 -1.1092518456280231e-02</internalNodes>
          <leafValues>
            4.3478261679410934e-02 -9.1878169775009155e-01</leafValues></_>
        <_>
          <internalNodes>
            0 -1 49 2.9659286141395569e-02</internalNodes>
          <leafValues>
            -9.4229894876480103e-01 1.1804602295160294e-01</leafValues></_>
        <_>
          <internalNodes>
            0 -1 21 -3.9034225046634674e-03</internalNodes>
          <leafValues>
            1.8213875591754913e-01 -1.</leafValues></_></weakClassifiers></_>
    <!-- stage 4 -->
    <_>
      <maxWeakCount>3</maxWeakCount>
      <stageThreshold>-1.6096504926681519e+00</stageThreshold>
      <weakClassifiers>
        <_>
          <internalNodes>
            0 -1 25 -4.8653751611709595e-02</internalNodes>
          <leafValues>
            1.5094339847564697e-01 -9.2152917385101318e-01</leafValues></_>
        <_>
          <internalNodes>
            0 -1 10 -6.1259277164936066e-02</internalNodes>
          <leafValues>
            4.6667587757110596e-01 -7.8453350067138672e-01</leafValues></_>
        <_>
          <internalNodes>
            0 -1 19 4.1866800747811794e-03</internalNodes>
          <leafValues>
            -9.7606033086776733e-01 3.2932239770889282e-01</leafValues></_></weakClassifiers></_>
    <!-- stage 5 -->
    <_>
      <maxWeakCount>4</maxWeakCount>
      <stageThreshold>-1.4443410634994507e+00</stageThreshold>
      <weakClassifiers>
        <_>
          <internalNodes>
            0 -1 27 4.0482372045516968e-02</internalNodes>
          <leafValues>
            -8.6842107772827148e-01 6.6666668653488159e-01</leafValues></_>
        <_>
          <internalNodes>
            0 -1 36 -2.2157486528158188e-03</internalNodes>
          <leafValues>
            1.8878361582756042e-01 -8.9965724945068359e-01</leafValues></_>
        <_>
          <internalNodes>
            0 -1 11 -4.6188393607735634e-03</internalNodes>
          <leafValues>
            2.5532236695289612e-01 -9.7569781541824341e-01</leafValues></_>
        <_>
          <internalNodes>
            0 -1 9 -1.2822793796658516e-03</internalNodes>
          <leafValues>
            2.1099419891834259e-01 -9.6497720479965210e-01</leafValues></_></weakClassifiers></_>
    <!-- stage 6 -->
    <_>
      <maxWeakCount>5</maxWeakCount>
      <stageThreshold>-1.7918351888656616e+00</stageThreshold>
      <weakClassifiers>
        <_>
          <internalNodes>
            0 -1 54 1.3379260897636414e-01</internalNodes>
          <leafValues>
            -8.7193971872329712e-01 6.8421053886413574e-01</leafValues></_>
        <_>
          <internalNodes>
            0 -1 47 -8.1411935389041901e-03</internalNodes>
          <leafValues>
            2.4730584025382996e-01 -7.7951484918594360e-01</leafValues></_>
        <_>
          <internalNodes>
            0 -1 44 1.1149223893880844e-02</internalNodes>
          <leafValues>
            -8.2858765125274658e-01 3.1627997756004333e-01</leafValues></_>
        <_>
          <internalNodes>
            0 -1 45 -5.4740197956562042e-03</internalNodes>
          <leafValues>
            -8.6711400747299194e-01 3.1886845827102661e-01</leafValues></_>
        <_>
          <internalNodes>
            0 -1 6 3.8494258187711239e-03</internalNodes>
          <leafValues>
            -7.7552902698516846e-01 4.3531727790832520e-01</leafValues></_></weakClassifiers></_>
    <!-- stage 7 -->
    <_>
      <maxWeakCount>5</maxWeakCount>
      <stageThreshold>-2.0026538372039795e+00</stageThreshold>
      <weakClassifiers>
        <_>
          <internalNodes>
            0 -1 33 2.4435678124427795e-01</internalNodes>
          <leafValues>
            -8.8487803936004639e-01 9.3333333730697632e-02</leafValues></_>
        <_>
          <internalNodes>
            0 -1 47 -8.1216776743531227e-03</internalNodes>
          <leafValues>
            2.7527913451194763e-01 -7.7549326419830322e-01</leafValues></_>
        <_>
          <internalNodes>
            0 -1 22 -6.9403965026140213e-03</internalNodes>
          <leafValues>
            2.8828695416450500e-01 -8.1544911861419678e-01</leafValues></_>
        <_>
          <internalNodes>
            0 -1 40 5.6834786664694548e-04</internalNodes>
          <leafValues>
            2.9722246527671814e-01 -9.1083365678787231e-01</leafValues></_>
        <_>
          <internalNodes>
            0 -1 37 -9.9621457047760487e-04</internalNodes>
          <leafValues>
            2.8026416897773743e-01 -9.7432202100753784e-01</leafValues></_></weakClassifiers></_>
    <!-- stage 8 -->
    <_>
      <maxWeakCount>3</maxWeakCount>
      <stageThreshold>-1.2987045049667358e+00</stageThreshold>
      <weakClassifiers>
        <_>
          <internalNodes>
            0 -1 5 -3.1060624122619629e-01</internalNodes>
          <leafValues>
            4.2857143282890320e-01 -8.8505744934082031e-01</leafValues></_>
        <_>
          <internalNodes>
            0 -1 46 -9.2184590175747871e-03</internalNodes>
          <leafValues>
            4.3367779254913330e-01 -6.8758803606033325e-01</leafValues></_>
        <_>
          <internalNodes>
            0 -1 39 -2.2527868859469891e-03</internalNodes>
          <leafValues>
            2.7394104003906250e-01 -9.8791855573654175e-01</leafValues></_></weakClassifiers></_>
    <!-- stage 9 -->
    <_>
      <maxWeakCount>4</maxWeakCount>
      <stageThreshold>-1.5291835069656372e+00</stageThreshold>
      <weakClassifiers>
        <_>
          <internalNodes>
            0 -1 5 -3.5543256998062134e-01</internalNodes>
          <leafValues>
            2.4528302252292633e-01 -8.7201529741287231e-01</leafValues></_>
        <_>
          <internalNodes>
            0 -1 48 -9.4543155282735825e-03</internalNodes>
          <leafValues>
            1.2711955606937408e-01 -8.2856732606887817e-01</leafValues></_>
        <_>
          <internalNodes>
            0 -1 16 2.6844849344342947e-03</internalNodes>
          <leafValues>
            -9.6270650625228882e-01 2.2647811472415924e-01</leafValues></_>
        <_>
          <internalNodes>
            0 -1 42 1.4649365039076656e-04</internalNodes>
          <leafValues>
            1.7841871082782745e-01 -1.</leafValues></_></weakClassifiers></_>
    <!-- stage 10 -->
    <_>
      <maxWeakCount>6</maxWeakCount>
      <stageThreshold>-1.7893531322479248e+00</stageThreshold>
      <weakClassifiers>
        <_>
          <internalNodes>
            0 -1 23 -1.6742629930377007e-02</internalNodes>
          <leafValues>
            1.7647059261798859e-01 -8.8372093439102173e-01</leafValues></_>
        <_>
          <internalNodes>
            0 -1 0 -1.3265459239482880e-01</internalNodes>
          <leafValues>
            5.9238344430923462e-01 -6.5588080883026123e-01</leafValues></_>
        <_>
          <internalNodes>
            0 -1 43 -3.1200883677229285e-04</internalNodes>
          <leafValues>
            -9.1824686527252197e-01 2.8974780440330505e-01</leafValues></_>
        <_>
          <internalNodes>
            0 -1 30 -8.4112808108329773e-03</internalNodes>
          <leafValues>
            -1. 1.9588077068328857e-01</leafValues></_>
        <_>
          <internalNodes>
            0 -1 52 1.0007966193370521e-04</internalNodes>
          <leafValues>
            -9.1992062330245972e-01 2.6194781064987183e-01</leafValues></_>
        <_>
          <internalNodes>
            0 -1 29 1.4182752929627895e-03</internalNodes>
          <leafValues>
            2.1066690981388092e-01 -9.7881227731704712e-01</leafValues></_></weakClassifiers></_>
    <!-- stage 11 -->
    <_>
      <maxWeakCount>4</maxWeakCount>
      <stageThreshold>-1.6672276258468628e+00</stageThreshold>
      <weakClassifiers>
        <_>
          <internalNodes>
            0 -1 23 -1.5281111001968384e-02</internalNodes>
          <leafValues>
            1.1392404884099960e-01 -8.9030361175537109e-01</leafValues></_>
        <_>
          <internalNodes>
            0 -1 12 -1.5135530702536926e-05</internalNodes>
          <leafValues>
            1.4546587131917477e-02 -8.8959360122680664e-01</leafValues></_>
        <_>
          <internalNodes>
            0 -1 15 2.5752335204742849e-04</internalNodes>
          <leafValues>
            1.6834367811679840e-01 -9.3157923221588135e-01</leafValues></_>
        <_>
          <internalNodes>
            0 -1 13 -2.9877852648496628e-03</internalNodes>
          <leafValues>
            -9.5981431007385254e-01 1.9472748041152954e-01</leafValues></_></weakClassifiers></_>
    <!-- stage 12 -->
    <_>
      <maxWeakCount>5</maxWeakCount>
      <stageThreshold>-2.1436071395874023e+00</stageThreshold>
      <weakClassifiers>
        <_>
          <internalNodes>
            0 -1 24 3.7784818559885025e-02</internalNodes>
          <leafValues>
            -8.9860832691192627e-01 4.2553190141916275e-02</leafValues></_>
        <_>
          <internalNodes>
            0 -1 35 9.6404534997418523e-04</internalNodes>
          <leafValues>
            -7.8228080272674561e-01 1.5344338119029999e-01</leafValues></_>
        <_>
          <internalNodes>
            0 -1 4 4.7201092820614576e-04</internalNodes>
          <leafValues>
            1.5806028246879578e-01 -1.</leafValues></_>
        <_>
          <internalNodes>
            0 -1 7 4.6270755119621754e-03</internalNodes>
          <leafValues>
            -8.3633744716644287e-01 2.5225761532783508e-01</leafValues></_>
        <_>
          <internalNodes>
            0 -1 14 2.8703380376100540e-03</internalNodes>
          <leafValues>
            2.1555909514427185e-01 -1.</leafValues></_></weakClassifiers></_>
    <!-- stage 13 -->
    <_>
      <maxWeakCount>5</maxWeakCount>
      <stageThreshold>-1.8843739032745361e+00</stageThreshold>
      <weakClassifiers>
        <_>
          <internalNodes>
            0 -1 50 1.7446726560592651e-01</internalNodes>
          <leafValues>
            -8.7127763032913208e-01 1.1864406615495682e-01</leafValues></_>
        <_>
          <internalNodes>
            0 -1 34 -4.0811318904161453e-03</internalNodes>
          <leafValues>
            1.3578021526336670e-01 -8.3761650323867798e-01</leafValues></_>
        <_>
          <internalNodes>
            0 -1 20 -1.0531917214393616e-03</internalNodes>
          <leafValues>
            -9.7004246711730957e-01 1.8576258420944214e-01</leafValues></_>
        <_>
          <internalNodes>
            0 -1 55 -4.0734559297561646e-03</internalNodes>
          <leafValues>
            3.4960454702377319e-01 -6.5945988893508911e-01</leafValues></_>
        <_>
          <internalNodes>
            0 -1 18 -1.1487582698464394e-02</internalNodes>
          <leafValues>
            -1. 2.9821759462356567e-01</leafValues></_></weakClassifiers></_>
    <!-- stage 14 -->
    <_>
      <maxWeakCount>4</maxWeakCount>
      <stageThreshold>-1.9627093076705933e+00</stageThreshold>
      <weakClassifiers>
        <_>
          <internalNodes>
            0 -1 2 -4.0288209915161133e-01</internalNodes>
          <leafValues>
            9.0909093618392944e-02 -8.7620890140533447e-01</leafValues></_>
        <_>
          <internalNodes>
            0 -1 38 1.4981772750616074e-02</internalNodes>
          <leafValues>
            -7.4795365333557129e-01 1.9986750185489655e-01</leafValues></_>
        <_>
          <internalNodes>
            0 -1 28 -2.1999282762408257e-03</internalNodes>
          <leafValues>
            3.8466322422027588e-01 -6.4020621776580811e-01</leafValues></_>
        <_>
          <internalNodes>
            0 -1 31 1.5164083379204385e-05</internalNodes>
          <leafValues>
            -8.3110773563385010e-01 3.0165949463844299e-01</leafValues></_></weakClassifiers></_></stages>
  <features>
    <_>
      <rects>
        <_>
          0 6 12 16 -1.</_>
        <_>
          6 6 6 16 2.</_></rects>
      <tilted>0</tilted></_>
    <_>
      <rects>
        <_>
          1 0 30 8 -1.</_>
        <_>
          11 0 10 8 3.</_></rects>
      <tilted>0</tilted></_>
    <_>
      <rects>
        <_>
          1 0 30 22 -1.</_>
        <_>
          11 0 10 22 3.</_></rects>
      <tilted>0</tilted></_>
    <_>
      <rects>
        <_>
          3 8 4 6 -1.</_>
        <_>
          5 8 2 6 2.</_></rects>
      <tilted>0</tilted></_>
    <_>
      <rects>
        <_>
          3 13 16 3 -1.</_>
        <_>
          3 14 16 1 3.</_></rects>
      <tilted>0</tilted></_>
    <_>
      <rects>
        <_>
          4 0 25 24 -1.</_>
        <_>
          4 8 25 8 3.</_></rects>
      <tilted>0</tilted></_>
    <_>
      <rects>
        <_>
          4 8 18 2 -1.</_>
        <_>
          4 8 9 1 2.</_>
        <_>
          13 9 9 1 2.</_></rects>
      <tilted>0</tilted></_>
    <_>
      <rects>
        <_>
          5 8 7 12 -1.</_>
        <_>
          5 14 7 6 2.</_></rects>
      <tilted>0</tilted></_>
    <_>
      <rects>
        <_>
          6 4 16 6 -1.</_>
        <_>
          6 4 8 3 2.</_>
        <_>
          14 7 8 3 2.</_></rects>
      <tilted>0</tilted></_>
    <_>
      <rects>
        <_>
          6 5 6 8 -1.</_>
        <_>
          8 5 2 8 3.</_></rects>
      <tilted>0</tilted></_>
    <_>
      <rects>
        <_>
          6 9 16 8 -1.</_>
        <_>
          6 9 8 4 2.</_>
        <_>
          14 13 8 4 2.</_></rects>
      <tilted>0</tilted></_>
    <_>
      <rects>
        <_>
          6 10 14 9 -1.</_>
        <_>
          6 13 14 3 3.</_></rects>
      <tilted>0</tilted></_>
    <_>
      <rects>
        <_>
          7 4 1 14 -1.</_>
        <_>
          7 11 1 7 2.</_></rects>
      <tilted>0</tilted></_>
    <_>
      <rects>
        <_>
          7 11 7 6 -1.</_>
        <_>
          7 13 7 2 3.</_></rects>
      <tilted>0</tilted></_>
    <_>
      <rects>
        <_>
          7 12 8 4 -1.</_>
        <_>
          7 14 8 2 2.</_></rects>
      <tilted>0</tilted></_>
    <_>
      <rects>
        <_>
          7 12 9 3 -1.</_>
        <_>
          7 13 9 1 3.</_></rects>
      <tilted>0</tilted></_>
    <_>
      <rects>
        <_>
          8 6 8 12 -1.</_>
        <_>
          8 12 8 6 2.</_></rects>
      <tilted>0</tilted></_>
    <_>
      <rects>
        <_>
          8 7 11 4 -1.</_>
        <_>
          8 9 11 2 2.</_></rects>
      <tilted>0</tilted></_>
    <_>
      <rects>
        <_>
          8 8 15 4 -1.</_>
        <_>
          13 8 5 4 3.</_></rects>
      <tilted>0</tilted></_>
    <_>
      <rects>
        <_>
          8 8 16 7 -1.</_>
        <_>
          16 8 8 7 2.</_></rects>
      <tilted>0</tilted></_>
    <_>
      <rects>
        <_>
          8 13 9 3 -1.</_>
        <_>
          8 14 9 1 3.</_></rects>
      <tilted>0</tilted></_>
    <_>
      <rects>
        <_>
          9 12 18 3 -1.</_>
        <_>
          18 12 9 3 2.</_></rects>
      <tilted>0</tilted></_>
    <_>
      <rects>
        <_>
          9 15 12 2 -1.</_>
        <_>
          15 15 6 2 2.</_></rects>
      <tilted>0</tilted></_>
    <_>
      <rects>
        <_>
          10 0 12 1 -1.</_>
        <_>
          14 0 4 1 3.</_></rects>
      <tilted>0</tilted></_>
    <_>
      <rects>
        <_>
          10 0 11 6 -1.</_>
        <_>
          10 2 11 2 3.</_></rects>
      <tilted>0</tilted></_>
    <_>
      <rects>
        <_>
          10 1 13 6 -1.</_>
        <_>
          10 4 13 3 2.</_></rects>
      <tilted>0</tilted></_>
    <_>
      <rects>
        <_>
          10 9 8 4 -1.</_>
        <_>
          10 9 4 2 2.</_>
        <_>
          14 11 4 2 2.</_></rects>
      <tilted>0</tilted></_>
    <_>
      <rects>
        <_>
          10 11 6 7 -1.</_>
        <_>
          12 11 2 7 3.</_></rects>
      <tilted>0</tilted></_>
    <_>
      <rects>
        <_>
          10 16 2 6 -1.</_>
        <_>
          10 18 2 2 3.</_></rects>
      <tilted>0</tilted></_>
    <_>
      <rects>
        <_>
          11 6 9 4 -1.</_>
        <_>
          14 6 3 4 3.</_></rects>
      <tilted>0</tilted></_>
    <_>
      <rects>
        <_>
          11 6 12 5 -1.</_>
        <_>
          15 6 4 5 3.</_></rects>
      <tilted>0</tilted></_>
    <_>
      <rects>
        <_>
          11 7 14 2 -1.</_>
        <_>
          11 7 7 1 2.</_>
        <_>
          18 8 7 1 2.</_></rects>
      <tilted>0</tilted></_>
    <_>
      <rects>
        <_>
          12 0 9 18 -1.</_>
        <_>
          15 0 3 18 3.</_></rects>
      <tilted>0</tilted></_>
    <_>
      <rects>
        <_>
          12 0 20 23 -1.</_>
        <_>
          22 0 10 23 2.</_></rects>
      <tilted>0</tilted></_>
    <_>
      <rects>
        <_>
          13 10 5 6 -1.</_>
        <_>
          13 12 5 2 3.</_></rects>
      <tilted>0</tilted></_>
    <_>
      <rects>
        <_>
          13 11 6 2 -1.</_>
        <_>
          13 11 3 1 2.</_>
        <_>
          16 12 3 1 2.</_></rects>
      <tilted>0</tilted></_>
    <_>
      <rects>
        <_>
          13 12 6 2 -1.</_>
        <_>
          15 12 2 2 3.</_></rects>
      <tilted>0</tilted></_>
    <_>
      <rects>
        <_>
          14 9 1 12 -1.</_>
        <_>
          14 15 1 6 2.</_></rects>
      <tilted>0</tilted></_>
    <_>
      <rects>
        <_>
          15 7 8 10 -1.</_>
        <_>
          19 7 4 10 2.</_></rects>
      <tilted>0</tilted></_>
    <_>
      <rects>
        <_>
          15 11 6 6 -1.</_>
        <_>
          15 11 3 3 2.</_>
        <_>
          18 14 3 3 2.</_></rects>
      <tilted>0</tilted></_>
    <_>
      <rects>
        <_>
          16 8 8 6 -1.</_>
        <_>
          16 8 4 3 2.</_>
        <_>
          20 11 4 3 2.</_></rects>
      <tilted>0</tilted></_>
    <_>
      <rects>
        <_>
          16 11 9 2 -1.</_>
        <_>
          19 11 3 2 3.</_></rects>
      <tilted>0</tilted></_>
    <_>
      <rects>
        <_>
          16 13 2 3 -1.</_>
        <_>
          16 14 2 1 3.</_></rects>
      <tilted>0</tilted></_>
    <_>
      <rects>
        <_>
          16 14 6 2 -1.</_>
        <_>
          16 14 3 1 2.</_>
        <_>
          19 15 3 1 2.</_></rects>
      <tilted>0</tilted></_>
    <_>
      <rects>
        <_>
          17 0 6 20 -1.</_>
        <_>
          19 0 2 20 3.</_></rects>
      <tilted>0</tilted></_>
    <_>
      <rects>
        <_>
          17 5 6 10 -1.</_>
        <_>
          17 5 3 5 2.</_>
        <_>
          20 10 3 5 2.</_></rects>
      <tilted>0</tilted></_>
    <_>
      <rects>
        <_>
          18 4 6 4 -1.</_>
        <_>
          18 4 3 2 2.</_>
        <_>
          21 6 3 2 2.</_></rects>
      <tilted>0</tilted></_>
    <_>
      <rects>
        <_>
          18 4 8 4 -1.</_>
        <_>
          18 4 4 2 2.</_>
        <_>
          22 6 4 2 2.</_></rects>
      <tilted>0</tilted></_>
    <_>
      <rects>
        <_>
          18 5 10 4 -1.</_>
        <_>
          18 5 5 2 2.</_>
        <_>
          23 7 5 2 2.</_></rects>
      <tilted>0</tilted></_>
    <_>
      <rects>
        <_>
          18 7 10 14 -1.</_>
        <_>
          18 7 5 7 2.</_>
        <_>
          23 14 5 7 2.</_></rects>
      <tilted>0</tilted></_>
    <_>
      <rects>
        <_>
          19 2 12 22 -1.</_>
        <_>
          25 2 6 22 2.</_></rects>
      <tilted>0</tilted></_>
    <_>
      <rects>
        <_>
          19 8 10 12 -1.</_>
        <_>
          19 8 5 6 2.</_>
        <_>
          24 14 5 6 2.</_></rects>
      <tilted>0</tilted></_>
    <_>
      <rects>
        <_>
          19 9 6 1 -1.</_>
        <_>
          21 9 2 1 3.</_></rects>
      <tilted>0</tilted></_>
    <_>
      <rects>
        <_>
          20 9 3 6 -1.</_>
        <_>
          20 12 3 3 2.</_></rects>
      <tilted>0</tilted></_>
    <_>
      <rects>
        <_>
          21 5 10 16 -1.</_>
        <_>
          26 5 5 16 2.</_></rects>
      <tilted>0</tilted></_>
    <_>
      <rects>
        <_>
          23 5 4 8 -1.</_>
        <_>
          23 5 2 4 2.</_>
        <_>
          25 9 2 4 2.</_></rects>
      <tilted>0</tilted></_></features></turnRight_ahead>
</opencv_storage>
